digraph Tree {
node [shape=box] ;
0 [label="X[2] <= 4.0\ngini = 0.159\nsamples = 750000\nvalue = [684545, 65455]"] ;
1 [label="X[0] <= 100.004\ngini = 0.049\nsamples = 672517\nvalue = [655739, 16778]"] ;
0 -> 1 [labeldistance=2.5, labelangle=45, headlabel="True"] ;
2 [label="X[1] <= 49.998\ngini = 0.012\nsamples = 639155\nvalue = [635338, 3817]"] ;
1 -> 2 ;
3 [label="gini = 0.0\nsamples = 629673\nvalue = [629673, 0]"] ;
2 -> 3 ;
4 [label="X[6] <= 0.5\ngini = 0.481\nsamples = 9482\nvalue = [5665, 3817]"] ;
2 -> 4 ;
5 [label="gini = 0.0\nsamples = 3248\nvalue = [3248, 0]"] ;
4 -> 5 ;
6 [label="X[4] <= 0.5\ngini = 0.475\nsamples = 6234\nvalue = [2417, 3817]"] ;
4 -> 6 ;
7 [label="X[5] <= 0.5\ngini = 0.188\nsamples = 4008\nvalue = [421, 3587]"] ;
6 -> 7 ;
8 [label="gini = 0.0\nsamples = 3587\nvalue = [0, 3587]"] ;
7 -> 8 ;
9 [label="gini = 0.0\nsamples = 421\nvalue = [421, 0]"] ;
7 -> 9 ;
10 [label="X[3] <= 0.5\ngini = 0.185\nsamples = 2226\nvalue = [1996, 230]"] ;
6 -> 10 ;
11 [label="X[5] <= 0.5\ngini = 0.239\nsamples = 267\nvalue = [37, 230]"] ;
10 -> 11 ;
12 [label="gini = 0.0\nsamples = 230\nvalue = [0, 230]"] ;
11 -> 12 ;
13 [label="gini = 0.0\nsamples = 37\nvalue = [37, 0]"] ;
11 -> 13 ;
14 [label="gini = 0.0\nsamples = 1959\nvalue = [1959, 0]"] ;
10 -> 14 ;
15 [label="X[6] <= 0.5\ngini = 0.475\nsamples = 33362\nvalue = [20401, 12961]"] ;
1 -> 15 ;
16 [label="X[1] <= 49.834\ngini = 0.027\nsamples = 11663\nvalue = [11506, 157]"] ;
15 -> 16 ;
17 [label="gini = 0.0\nsamples = 11484\nvalue = [11484, 0]"] ;
16 -> 17 ;
18 [label="X[5] <= 0.5\ngini = 0.216\nsamples = 179\nvalue = [22, 157]"] ;
16 -> 18 ;
19 [label="gini = 0.0\nsamples = 157\nvalue = [0, 157]"] ;
18 -> 19 ;
20 [label="gini = 0.0\nsamples = 22\nvalue = [22, 0]"] ;
18 -> 20 ;
21 [label="X[4] <= 0.5\ngini = 0.484\nsamples = 21699\nvalue = [8895, 12804]"] ;
15 -> 21 ;
22 [label="X[5] <= 0.5\ngini = 0.179\nsamples = 14107\nvalue = [1404, 12703]"] ;
21 -> 22 ;
23 [label="gini = 0.0\nsamples = 12703\nvalue = [0, 12703]"] ;
22 -> 23 ;
24 [label="gini = 0.0\nsamples = 1404\nvalue = [1404, 0]"] ;
22 -> 24 ;
25 [label="X[1] <= 49.985\ngini = 0.026\nsamples = 7592\nvalue = [7491, 101]"] ;
21 -> 25 ;
26 [label="gini = 0.0\nsamples = 7477\nvalue = [7477, 0]"] ;
25 -> 26 ;
27 [label="X[5] <= 0.5\ngini = 0.214\nsamples = 115\nvalue = [14, 101]"] ;
25 -> 27 ;
28 [label="gini = 0.0\nsamples = 101\nvalue = [0, 101]"] ;
27 -> 28 ;
29 [label="gini = 0.0\nsamples = 14\nvalue = [14, 0]"] ;
27 -> 29 ;
30 [label="X[6] <= 0.5\ngini = 0.467\nsamples = 77483\nvalue = [28806, 48677]"] ;
0 -> 30 [labeldistance=2.5, labelangle=-45, headlabel="False"] ;
31 [label="X[0] <= 100.034\ngini = 0.214\nsamples = 27263\nvalue = [23940, 3323]"] ;
30 -> 31 ;
32 [label="X[3] <= 0.5\ngini = 0.151\nsamples = 25953\nvalue = [23816, 2137]"] ;
31 -> 32 ;
33 [label="X[4] <= 0.5\ngini = 0.488\nsamples = 3196\nvalue = [1348, 1848]"] ;
32 -> 33 ;
34 [label="X[5] <= 0.5\ngini = 0.191\nsamples = 2055\nvalue = [220, 1835]"] ;
33 -> 34 ;
35 [label="gini = 0.0\nsamples = 1835\nvalue = [0, 1835]"] ;
34 -> 35 ;
36 [label="gini = 0.0\nsamples = 220\nvalue = [220, 0]"] ;
34 -> 36 ;
37 [label="X[1] <= 48.878\ngini = 0.023\nsamples = 1141\nvalue = [1128, 13]"] ;
33 -> 37 ;
38 [label="gini = 0.0\nsamples = 1125\nvalue = [1125, 0]"] ;
37 -> 38 ;
39 [label="X[5] <= 0.5\ngini = 0.305\nsamples = 16\nvalue = [3, 13]"] ;
37 -> 39 ;
40 [label="gini = 0.0\nsamples = 13\nvalue = [0, 13]"] ;
39 -> 40 ;
41 [label="gini = 0.0\nsamples = 3\nvalue = [3, 0]"] ;
39 -> 41 ;
42 [label="X[1] <= 49.992\ngini = 0.025\nsamples = 22757\nvalue = [22468, 289]"] ;
32 -> 42 ;
43 [label="gini = 0.0\nsamples = 22439\nvalue = [22439, 0]"] ;
42 -> 43 ;
44 [label="X[5] <= 0.5\ngini = 0.166\nsamples = 318\nvalue = [29, 289]"] ;
42 -> 44 ;
45 [label="gini = 0.0\nsamples = 289\nvalue = [0, 289]"] ;
44 -> 45 ;
46 [label="gini = 0.0\nsamples = 29\nvalue = [29, 0]"] ;
44 -> 46 ;
47 [label="X[5] <= 0.5\ngini = 0.171\nsamples = 1310\nvalue = [124, 1186]"] ;
31 -> 47 ;
48 [label="gini = 0.0\nsamples = 1185\nvalue = [0, 1185]"] ;
47 -> 48 ;
49 [label="X[1] <= 42.561\ngini = 0.016\nsamples = 125\nvalue = [124, 1]"] ;
47 -> 49 ;
50 [label="gini = 0.0\nsamples = 124\nvalue = [124, 0]"] ;
49 -> 50 ;
51 [label="gini = 0.0\nsamples = 1\nvalue = [0, 1]"] ;
49 -> 51 ;
52 [label="X[5] <= 0.5\ngini = 0.175\nsamples = 50220\nvalue = [4866, 45354]"] ;
30 -> 52 ;
53 [label="gini = 0.0\nsamples = 45167\nvalue = [0, 45167]"] ;
52 -> 53 ;
54 [label="X[0] <= 100.233\ngini = 0.071\nsamples = 5053\nvalue = [4866, 187]"] ;
52 -> 54 ;
55 [label="X[1] <= 49.849\ngini = 0.021\nsamples = 4829\nvalue = [4777, 52]"] ;
54 -> 55 ;
56 [label="gini = 0.0\nsamples = 4755\nvalue = [4755, 0]"] ;
55 -> 56 ;
57 [label="X[4] <= 0.5\ngini = 0.418\nsamples = 74\nvalue = [22, 52]"] ;
55 -> 57 ;
58 [label="gini = 0.0\nsamples = 46\nvalue = [0, 46]"] ;
57 -> 58 ;
59 [label="X[0] <= 1.896\ngini = 0.337\nsamples = 28\nvalue = [22, 6]"] ;
57 -> 59 ;
60 [label="gini = 0.0\nsamples = 6\nvalue = [0, 6]"] ;
59 -> 60 ;
61 [label="gini = 0.0\nsamples = 22\nvalue = [22, 0]"] ;
59 -> 61 ;
62 [label="X[4] <= 0.5\ngini = 0.479\nsamples = 224\nvalue = [89, 135]"] ;
54 -> 62 ;
63 [label="gini = 0.0\nsamples = 133\nvalue = [0, 133]"] ;
62 -> 63 ;
64 [label="X[1] <= 44.04\ngini = 0.043\nsamples = 91\nvalue = [89, 2]"] ;
62 -> 64 ;
65 [label="gini = 0.0\nsamples = 89\nvalue = [89, 0]"] ;
64 -> 65 ;
66 [label="gini = 0.0\nsamples = 2\nvalue = [0, 2]"] ;
64 -> 66 ;
}